Language model created by QuickLM on Wed Apr 26 12:29:10 EDT 2017
Copyright (c) 1996-2010 Carnegie Mellon University and Alexander I. Rudnicky

The model is in standard ARPA format, designed by Doug Paul while he was at MITRE.

The code that was used to produce this language model is available in Open Source.
Please visit http://www.speech.cs.cmu.edu/tools/ for more information

The (fixed) discount mass is 0.5. The backoffs are computed using the ratio method.
This model based on a corpus of 12 sentences and 15 words

\data\
ngram 1=15
ngram 2=25
ngram 3=13

\1-grams:
-0.7901 </s> -0.3010
-0.7901 <s> -0.2242
-1.8692 ALL -0.2242
-1.8692 BACK -0.2242
-1.8692 BENDER -0.2242
-1.8692 DOWN -0.2242
-1.8692 FASTER -0.2242
-1.8692 FORWARD -0.2242
-1.8692 JARVIS -0.2242
-1.8692 LEFT -0.2242
-1.8692 QUIT -0.2242
-1.8692 RIGHT -0.2242
-1.8692 SLOW -0.2951
-1.8692 STOP -0.2242
-1.8692 WANDER -0.2242

\2-grams:
-1.3802 <s> ALL 0.0000
-1.3802 <s> BACK 0.0000
-1.3802 <s> BENDER 0.0000
-1.3802 <s> FASTER 0.0000
-1.3802 <s> FORWARD 0.0000
-1.3802 <s> JARVIS 0.0000
-1.3802 <s> LEFT 0.0000
-1.3802 <s> QUIT 0.0000
-1.3802 <s> RIGHT 0.0000
-1.3802 <s> SLOW 0.0000
-1.3802 <s> STOP 0.0000
-1.3802 <s> WANDER 0.0000
-0.3010 ALL </s> -0.3010
-0.3010 BACK </s> -0.3010
-0.3010 BENDER </s> -0.3010
-0.3010 DOWN </s> -0.3010
-0.3010 FASTER </s> -0.3010
-0.3010 FORWARD </s> -0.3010
-0.3010 JARVIS </s> -0.3010
-0.3010 LEFT </s> -0.3010
-0.3010 QUIT </s> -0.3010
-0.3010 RIGHT </s> -0.3010
-0.3010 SLOW DOWN 0.0000
-0.3010 STOP </s> -0.3010
-0.3010 WANDER </s> -0.3010

\3-grams:
-0.3010 <s> ALL </s>
-0.3010 <s> BACK </s>
-0.3010 <s> BENDER </s>
-0.3010 <s> FASTER </s>
-0.3010 <s> FORWARD </s>
-0.3010 <s> JARVIS </s>
-0.3010 <s> LEFT </s>
-0.3010 <s> QUIT </s>
-0.3010 <s> RIGHT </s>
-0.3010 <s> SLOW DOWN
-0.3010 <s> STOP </s>
-0.3010 <s> WANDER </s>
-0.3010 SLOW DOWN </s>

\end\
